tree
version=v3
num_class=1
num_tree_per_iteration=1
label_index=0
max_feature_idx=10
objective=binary sigmoid:1
feature_names=Column_0 Column_1 Column_2 Column_3 Column_4 Column_5 Column_6 Column_7 Column_8 Column_9 Column_10
feature_infos=[0:2] [0:2] [0:4] [0:1] [0:2] [36:480] [0:1] [0:2] [2.1972245773362196:6.5510803350434044] [7.5390270558239951:11.056224955535519] [14.444444444444445:396.36666666666667]
tree_sizes=1522 1544 1571 1546 1352 1440 1350 1449 1450 1453 1444 1556 1447 1444 1660 1556 1450 1561 1568 1558

Tree=0
num_leaves=14
num_cat=0
split_feature=6 9 9 1 10 8 8 10 9 9 8 10 10
split_gain=101.591 6.67084 5.96023 2.32074 2.8054 4.70084 1.49841 1.45832 1.66126 1.27967 1.27537 1.10573 0.136921
threshold=1.0000000180025095e-35 8.192708573244488 8.7022572133254794 1.0000000180025095e-35 48.13051801801803 5.2230512493957635 5.0139575654555903 40.850312989045385 8.5343444337285685 8.4998435323749586 4.2765696590948545 33.796796695110395 37.580538757559104
decision_type=8 2 2 2 10 10 8 8 2 2 10 10 8
left_child=9 10 7 -4 5 -5 -6 11 -9 -1 -2 -3 -13
right_child=1 2 3 4 6 -7 -8 8 -10 -11 -12 12 -14
leaf_value=0.64843020834665277 0.81608894718006986 0.84794410755841909 0.8028527309563791 0.78109929733657413 0.87294712817575049 0.85114486529978439 0.83425197722035671 0.82447188412174077 0.86437466396409401 0.68320387269728755 0.77987465959205182 0.88315244271343674 0.87141633099509752
leaf_weight=4.8994081765413267 4.4733726829290372 4.260354936122897 8.0946743786335009 4.8994081765413302 4.8994081765413258 4.6863904297351837 5.112425923347474 5.1124259233474714 5.3254436701536179 5.7514791637659073 5.3254436701536179 5.9644969105720493 4.2603549361228952
leaf_count=23 21 20 38 23 23 22 24 24 25 27 25 28 20
internal_value=0 0.467103 0.608187 0.288889 0.47494 0.0882716 0.845154 0.962963 0.678005 -2.87444 -0.290459 1.1683 1.34664
internal_weight=0 62.4142 52.6154 27.6923 19.5976 9.5858 10.0118 24.9231 10.4379 10.6509 9.79882 14.4852 10.2249
internal_count=343 293 247 130 92 45 47 117 49 50 46 68 48
shrinkage=1


Tree=1
num_leaves=14
num_cat=0
split_feature=6 9 9 1 10 8 8 10 9 8 10 9 9
split_gain=87.6772 6.11863 5.58526 2.12184 2.60417 4.26928 1.42528 1.39429 1.5625 1.13297 1.0675 0.99222 0.141379
threshold=1.0000000180025095e-35 8.192708573244488 8.7022572133254794 1.0000000180025095e-35 48.13051801801803 5.2230512493957635 5.0139575654555903 40.850312989045385 8.5343444337285685 4.2765696590948545 33.796796695110395 8.4998435323749586 8.4109429958083748
decision_type=8 2 2 2 10 10 8 8 2 10 10 2 2
left_child=11 9 7 -4 5 -5 -6 10 -9 -2 -3 -1 -12
right_child=1 2 3 4 6 -7 -8 8 -10 -11 12 -13 -14
leaf_value=-0.14562681172327516 0.0049108098799403119 0.035691201598271785 -0.0076492913421622776 -0.0280130093845396 0.060425769416118547 0.038828662025301698 0.02236319111764188 0.012934044875719761 0.051886404112011432 -0.029149395229729737 0.058700067420352414 -0.11578683114249058 0.070787474444099968
leaf_weight=5.1855500191450101 4.4644806236028654 4.1989141702652004 8.1197488009929675 4.9550022184848803 4.7800409197807285 4.6128817796707153 5.0661878585815439 5.0856696367263776 5.2139423787593842 5.3883232176303864 4.1461126059293729 6.0197871029376984 5.8077715784311295
leaf_count=23 21 20 38 23 23 22 24 24 25 25 20 27 28
internal_value=0 0.448215 0.585155 0.276264 0.455793 0.0842558 0.816828 0.932971 0.653056 -0.274322 1.13668 -2.59192 1.31505
internal_weight=0 61.8391 51.9863 27.5339 19.4141 9.56788 9.84623 24.4524 10.2996 9.8528 14.1528 11.2053 9.95388
internal_count=343 293 247 130 92 45 47 117 49 46 68 50 48
shrinkage=0.05


Tree=2
num_leaves=14
num_cat=0
split_feature=9 10 10 3 1 2 8 9 4 2 2 8 10
split_gain=11.557 5.07968 5.19965 5.08272 3.88846 4.49699 2.99532 2.61951 2.35609 1.00632 1.27553 0.505439 0.198359
threshold=7.9731551959596265 28.537250000000004 40.850312989045385 1.0000000180025095e-35 1.0000000180025095e-35 1.5000000000000002 5.0139575654555903 9.035010266166811 1.0000000180025095e-35 1.5000000000000002 1.0000000180025095e-35 5.0304165616299539 52.202840909090916
decision_type=2 10 10 2 2 2 10 2 2 2 2 10 10
left_child=-1 -2 8 4 7 6 12 -4 9 10 11 -3 -6
right_child=1 2 3 -5 5 -7 -8 -9 -10 -11 -12 -13 -14
leaf_value=-0.077513379372691482 -0.046646158250205731 0.022192690218483985 0.0022475548266333903 -0.042885827149909538 0.012654305692050888 0.054328170152792669 -0.026418370616622357 -0.04889559711283125 0.053608267257067965 -0.0037254026508410651 0.046909075480366713 0.00080391602633969486 0.027682092836112185
leaf_weight=4.6031377315521231 4.5590998679399481 7.9961335957050412 5.6175085753202456 6.8747850954532614 4.2152712196111697 5.8562902063131324 5.5524590313434592 4.5168864876031876 5.6322698444128028 4.5165985822677603 4.1431340277194968 4.2196730077266693 4.5835021436214447
leaf_count=21 21 38 26 32 20 28 26 21 27 21 20 20 22
internal_value=0 0.0867792 0.159733 -0.0813421 0.0945666 0.348085 0.0467351 -0.410938 0.498199 0.343342 0.458708 0.296088 0.409653
internal_weight=0 68.2836 63.7245 37.2167 30.3419 20.2075 14.3512 10.1344 26.5078 20.8755 16.3589 12.2158 8.79877
internal_count=343 322 301 175 143 96 68 47 126 99 78 58 42
shrinkage=0.05


Tree=3
num_leaves=14
num_cat=0
split_feature=6 9 9 8 9 10 10 10 9 8 10 9 10
split_gain=75.3503 5.26151 5.16993 1.85339 3.06744 3.77133 1.43903 1.24019 1.49508 1.10802 0.996957 0.789548 0.144743
threshold=1.0000000180025095e-35 8.192708573244488 8.7022572133254794 5.0139575654555903 8.9815521166065668 46.694485981308418 70.458703703703719 40.850312989045385 8.5343444337285685 4.2765696590948545 33.796796695110395 8.4998435323749586 37.765796703296708
decision_type=8 2 2 8 2 10 8 8 2 10 10 2 10
left_child=11 9 7 6 -5 -6 -4 10 -9 -2 -3 -1 -12
right_child=1 2 3 4 5 -7 -8 8 -10 -11 12 -13 -14
leaf_value=-0.13109063691126174 0.0065462714383734306 0.034235214943843975 0.050399113734855894 -0.027132963964704427 0.051293711963196369 -0.0042241657756332393 0.010113948796724337 0.01244952148291531 0.050754146559497428 -0.026922391229266471 0.068849728115500289 -0.10502738004466583 0.05636443031194413
leaf_weight=5.4251807928085309 4.5210149139165861 4.1283364146947887 4.7959851920604715 5.5314521640539196 5.0092225670814496 7.8566672056913376 4.1220290213823327 5.0629348456859571 5.1272133141756058 5.4587878882884979 5.565522834658621 6.2571413964033127 3.9823873043060303
leaf_count=23 21 20 23 26 24 37 20 24 25 25 28 27 20
internal_value=0 0.42901 0.558525 0.261444 0.0800866 0.347825 0.635575 0.898538 0.634453 -0.235211 1.09531 -2.34262 1.27284
internal_weight=0 61.1616 51.1818 27.3154 18.3973 12.8659 8.91801 23.8664 10.1901 9.9798 13.6762 11.6823 9.54791
internal_count=343 293 247 130 87 61 43 117 49 46 68 50 48
shrinkage=0.05


Tree=4
num_leaves=12
num_cat=0
split_feature=6 10 10 7 9 8 8 8 10 8 3
split_gain=66.5349 5.14775 5.52183 4.655 3.24346 3.19678 3.56596 1.06441 2.91744 1.13556 0.701968
threshold=1.0000000180025095e-35 29.42270950933565 40.850312989045385 1.0000000180025095e-35 8.7156340998314707 4.983512786670059 4.5379471377116305 5.0688844241303981 35.618681318681325 4.7317931335534196 1.0000000180025095e-35
decision_type=8 10 10 2 2 10 10 10 8 10 2
left_child=10 -2 7 4 -4 6 -5 9 -9 -3 -1
right_child=1 2 3 5 -6 -7 -8 8 -10 -11 -12
leaf_value=-0.09838720855486105 -0.028347555136808478 0.03971809492383846 -0.049596683162379009 0.01441821889329171 0.0063442684305878658 -0.0038783536674371409 0.063007095236126659 0.058194037947637257 -1.1587377400078002e-05 0.068152429229529299 -0.12305754370106643
leaf_weight=7.1712791472673398 4.9355757981538764 8.0271368920803088 4.1473062485456449 7.8217226564884204 6.9055245965719223 6.5783153772354117 7.3005951344966888 4.4289401173591587 4.1890870481729516 6.2413726001977912 4.8223967701196671
leaf_count=30 23 39 20 37 33 31 36 22 20 32 20
internal_value=0 0.411828 0.498651 0.235315 -0.292924 0.504365 0.757509 0.875516 0.598024 1.04312 -2.16613
internal_weight=0 60.5756 55.64 32.7535 11.0528 21.7006 15.1223 22.8865 8.61803 14.2685 11.9937
internal_count=343 293 270 157 53 104 73 113 42 71 50
shrinkage=0.05


Tree=5
num_leaves=13
num_cat=0
split_feature=6 9 8 9 8 9 9 9 9 9 9 9
split_gain=56.4943 4.48565 5.86474 4.59096 4.05885 6.35895 1.79117 1.29321 0.644466 0.576319 0.318639 0.156769
threshold=1.0000000180025095e-35 8.192708573244488 5.0937313815282925 8.9815521166065668 4.6774800307930642 8.4225527328850038 8.8749368567752907 9.3122432599549967 8.5077484064862308 8.0226612860267057 8.6237127761941448 8.4269401485366267
decision_type=8 2 10 2 10 2 2 2 2 2 2 2
left_child=8 9 4 -4 5 -3 10 -5 -1 -2 11 -6
right_child=1 2 3 7 6 -7 -8 -9 -10 -11 -12 -13
leaf_value=-0.08830621369522651 -0.0241614345119847 0.052670899584731548 -0.035746893482519415 0.036138636519008581 0.055142443297298685 -0.018742528841872698 0.020479315276493739 0.0014241267308970195 -0.11176676966151416 -8.9843603137843584e-05 0.049388514357128724 0.067888741017523194
leaf_weight=5.6495962589979154 4.5862791985273343 5.8595471084117872 5.6096524298191097 5.7783497869968397 3.8822186440229469 6.6605170220136642 4.0470120906829825 5.007825180888176 6.0749286264181137 5.4310763031244278 7.2887421101331702 6.371208444237709
leaf_count=23 21 29 27 28 20 32 20 24 25 25 36 33
internal_value=0 0.389075 0.51032 0.0188168 0.746578 0.293597 1.00927 0.400426 -2.00924 -0.222212 1.14762 1.26125
internal_weight=0 60.5224 50.5051 16.3958 34.1092 12.5201 21.5892 10.7862 11.7245 10.0174 17.5422 10.2534
internal_count=343 295 249 79 170 61 109 52 48 46 89 53
shrinkage=0.05


Tree=6
num_leaves=12
num_cat=0
split_feature=10 10 3 1 10 10 9 8 9 8 9
split_gain=11.2296 5.97945 5.60215 5.41732 2.38184 2.43572 1.9674 2.59274 1.83761 1.82073 1.09976
threshold=27.715655593002733 40.962985985533457 1.0000000180025095e-35 1.0000000180025095e-35 37.493781094527371 35.618681318681325 9.1114141301324647 4.7749040587885982 8.9162377227177121 4.9163179057820896 8.6674202719031239
decision_type=10 10 2 2 10 8 2 8 2 10 2
left_child=-1 4 3 8 5 9 7 -5 -3 -2 -6
right_child=1 2 -4 6 10 -7 -8 -9 -10 -11 -12
leaf_value=-0.06624577340163032 0.0060535920685199527 -0.0086458602144623056 -0.045221432567813066 0.030163129533217804 0.059790165811577506 -0.017051338849408553 0.040920232361064277 -0.015674067597934147 -0.050386045284047921 0.041910856643260608 0.025146602271065407
leaf_weight=5.8717238157987586 7.1869171708822304 6.6181871592998522 7.689936250448226 6.1237937211990365 5.0540948957204801 4.9421258568763724 6.5825635790824881 6.2171197682619104 4.3832375407218933 6.9771255850791931 4.1900176107883453
leaf_count=26 34 31 35 30 26 24 32 30 20 35 20
internal_value=0 0.118246 -0.143134 0.052499 0.465042 0.263427 0.376913 0.141424 -0.505523 0.474333 0.88175
internal_weight=0 65.9651 37.6148 29.9249 28.3503 19.1062 18.9235 12.3409 11.0014 14.164 9.24411
internal_count=343 317 178 143 139 93 92 60 51 69 46
shrinkage=0.05


Tree=7
num_leaves=13
num_cat=0
split_feature=6 9 8 9 8 9 9 9 9 9 3 9
split_gain=49.8811 3.94614 5.6042 4.11932 3.77458 5.57999 1.69984 1.19595 0.661281 0.509303 0.34855 0.289649
threshold=1.0000000180025095e-35 8.192708573244488 5.0937313815282925 8.9815521166065668 4.6774800307930642 8.3688091789224668 8.8749368567752907 9.3122432599549967 8.4998435323749586 8.0226612860267057 1.0000000180025095e-35 8.6237127761941448
decision_type=8 2 10 2 10 2 2 2 2 2 2 2
left_child=8 9 4 -4 5 -3 10 -5 -1 -2 11 -6
right_child=1 2 3 7 6 -7 -8 -9 -10 -11 -12 -13
leaf_value=-0.10747581010925161 -0.022084258856825155 0.057500415212373868 -0.034101723562204388 0.034430367910549493 0.058839031935609992 -0.011703512710783699 0.019726938904614758 0.00081817974247724357 -0.083560148441542401 0.00045999140052565733 0.067983147022554591 0.043640243722543666
leaf_weight=4.9711474627256376 4.6383215188980085 4.6617675870656949 5.6625239253044155 5.6532732397317869 6.6511120498180443 7.7639401406049728 4.0076890438795081 4.9755921363830566 6.9056226462125778 5.4474351108074188 4.4307834953069678 5.9290815442800522
leaf_count=20 21 24 27 28 36 37 20 24 28 25 23 30
internal_value=0 0.372188 0.487847 0.00689122 0.722129 0.285196 0.980433 0.373916 -1.87141 -0.198157 1.11847 1.03352
internal_weight=0 59.8215 49.7358 16.2914 33.4444 12.4257 21.0187 10.6289 11.8768 10.0858 17.011 12.5802
internal_count=343 295 249 79 170 61 109 52 48 46 89 66
shrinkage=0.05


Tree=8
num_leaves=13
num_cat=0
split_feature=6 10 10 1 8 10 9 8 8 9 9 8
split_gain=44.8582 9.36874 5.87177 3.94712 3.0135 2.78745 1.42258 1.60371 2.30826 1.00037 0.60736 0.00358335
threshold=1.0000000180025095e-35 27.715655593002733 40.962985985533457 1.0000000180025095e-35 5.1298812082267613 48.962142857142865 9.1114141301324647 4.886575525404063 4.5485858369352732 8.2341649490335342 8.4998435323749586 4.9487347401052828
decision_type=8 10 10 2 10 8 2 8 10 2 2 10
left_child=10 -2 4 5 9 -4 7 8 -5 -3 -1 -11
right_child=1 2 3 6 -6 -7 -8 -9 -10 11 -12 -13
leaf_value=-0.10163086133895645 -0.049460078092885627 0.039753936417014142 -0.045870623088038305 -0.001881373470737518 0.016561039993759786 0.0049826350100652542 0.043678124386495362 -0.010911974371912355 0.048258282186712617 0.064608306497000334 -0.078776444297684156 0.066602240137344851
leaf_weight=4.9934774786233884 4.7528387308120719 6.3664220571517971 4.2309829145669946 4.1235137432813644 7.4761121720075598 7.4212931543588647 5.9482750892639151 4.2942920476198205 5.1776094734668732 5.7650775611400586 6.9572457522153854 3.6989505439996719
leaf_count=20 21 31 20 20 37 35 30 21 27 33 28 20
internal_value=0 0.357305 0.474726 0.191021 0.854466 -0.269647 0.46568 0.287223 0.520592 1.10157 -1.76652 1.30775
internal_weight=0 59.2554 54.5025 31.196 23.3066 11.6523 19.5437 13.5954 9.30112 15.8305 11.9507 9.46403
internal_count=343 295 274 153 121 55 98 68 47 84 48 53
shrinkage=0.05


Tree=9
num_leaves=13
num_cat=0
split_feature=6 10 10 1 8 10 9 7 9 2 9 8
split_gain=40.5022 8.46106 5.50574 3.59753 2.89159 2.46278 1.33267 1.99192 1.00479 0.943532 0.592867 0.00296436
threshold=1.0000000180025095e-35 27.715655593002733 40.962985985533457 1.0000000180025095e-35 5.1298812082267613 48.962142857142865 9.1114141301324647 1.0000000180025095e-35 8.2341649490335342 1.0000000180025095e-35 8.5077484064862308 4.9487347401052828
decision_type=8 10 10 2 10 8 2 2 2 2 2 10
left_child=10 -2 4 5 8 -4 7 -5 -3 -9 -1 -10
right_child=1 2 3 6 -6 -7 -8 9 11 -11 -12 -13
leaf_value=-0.072145150264572785 -0.046294257886420775 0.0384142172325962 -0.042813263640214531 -0.01183415542716462 0.015849260413931376 0.0047428298780499171 0.042360050948291698 0.044892234728425802 0.063695162419586823 0.011829803101650778 -0.094418190859606399 0.065540774656903708
leaf_weight=5.7325951009988767 4.8220984041690818 6.2617308646440533 4.3044874817132959 4.8646315336227444 7.4226608574390402 7.4070744663476953 5.8297403007745734 4.2670967727899534 5.5605243742465955 4.3655440509319305 6.239732101559639 3.5740797072649002
leaf_count=23 21 31 20 24 37 35 30 22 33 22 25 20
internal_value=0 0.34315 0.456773 0.182627 0.829668 -0.25472 0.447645 0.275069 1.07684 0.56345 -1.67507 1.28835
internal_weight=0 58.6797 53.8576 31.0386 22.819 11.7116 19.327 13.4973 15.3963 8.63264 11.9723 9.1346
internal_count=343 295 274 153 121 55 98 68 84 44 48 53
shrinkage=0.05


Tree=10
num_leaves=13
num_cat=0
split_feature=10 10 8 8 10 7 9 8 9 9 8 10
split_gain=8.54637 5.10577 3.61196 4.25997 6.76341 1.46965 4.23073 2.96222 3.06058 1.2665 1.19001 0.211716
threshold=28.537250000000004 42.142589764384716 5.0205801788306017 4.6774800307930642 62.438271604938279 1.5000000000000002 8.6674202719031239 4.9163179057820896 8.328082544383804 8.7921671189897506 4.8559213341406453 52.202840909090916
decision_type=8 10 10 10 8 2 2 8 2 2 10 8
left_child=-1 5 3 4 -3 7 -7 8 -2 -9 -5 -4
right_child=1 2 11 10 -6 6 -8 9 -10 -11 -12 -13
leaf_value=-0.06265126743079244 0.034747898369459705 -0.043885013264845563 -0.040870426383027736 0.013419835067194828 0.025456098602502336 0.031136906016235616 -0.032651189880099345 0.068625831348764169 -0.01946017852179828 0.032163970952652658 0.047437262016894542 -0.025623483642787492
leaf_weight=4.6426729410886756 6.2253046184778231 8.0781129449605942 4.2707994580268833 5.8778131753206235 6.2276785969734201 7.0200950503349322 4.1279048323631287 4.7663532495498639 4.4760376960039139 4.7599999308586121 4.5696785897016525 4.8765914887189874
leaf_count=20 32 37 20 30 30 36 20 26 23 23 23 23
internal_value=0 0.151167 -0.11789 0.0805361 -0.273981 0.441877 0.150346 0.602547 0.241487 1.00814 0.565978 -0.654842
internal_weight=0 65.2764 33.9007 24.7533 14.3058 31.3757 11.148 20.2277 10.7013 9.52635 10.4475 9.14739
internal_count=343 323 163 120 67 160 56 104 55 49 53 43
shrinkage=0.05


Tree=11
num_leaves=14
num_cat=0
split_feature=6 8 10 1 8 7 10 10 8 10 9 7 9
split_gain=43.71 5.43806 4.50357 3.28153 3.40042 3.07222 2.016 1.65903 1.45844 0.856746 0.666442 0.148779 0.0096975
threshold=1.0000000180025095e-35 5.0139575654555903 40.850312989045385 1.0000000180025095e-35 5.1676349844808334 1.0000000180025095e-35 55.278618421052634 45.240974551193538 5.4270898555638087 31.584354838709682 8.5077484064862308 1.5000000000000002 8.290166727041024
decision_type=8 10 10 2 10 2 10 10 8 10 2 2 2
left_child=10 2 9 -3 -5 -4 7 -7 -6 -2 -1 12 -11
right_child=1 3 5 4 8 6 -8 -9 -10 11 -12 -13 -14
leaf_value=-0.073074275835193311 0.034763278175679722 -0.032598870355148628 -0.012919056781661793 -0.020566189086951729 0.049451086591261254 0.023943122856056639 0.010053714323020223 0.067971960467741829 0.0093623351753378912 0.066150808948893608 -0.096690955429994119 0.051840553792347192 0.06253756455557781
leaf_weight=6.9540773630142194 4.701908975839614 5.6124625653028497 6.0097445398569134 4.9928571432828912 4.8678032308816883 4.3562200665473956 7.4942453056573859 4.2046315222978592 4.2491178810596475 3.6042669266462308 5.2366802543401718 3.5443426370620728 3.8304995745420456
leaf_count=28 21 26 30 26 24 22 37 22 22 20 21 20 24
internal_value=0 0.420348 0.642705 -0.00521661 0.252046 0.351512 0.579808 0.911355 0.615339 1.05244 -1.66438 1.20541 1.28578
internal_weight=0 57.4681 37.7459 19.7222 14.1098 22.0648 16.0551 8.56085 9.11692 15.681 12.1908 10.9791 7.43477
internal_count=343 294 196 98 72 111 81 44 46 85 49 64 44
shrinkage=0.05


Tree=12
num_leaves=13
num_cat=0
split_feature=6 8 8 9 1 8 8 9 7 8 9 7
split_gain=39.7424 5.03921 3.72972 3.48219 2.9423 3.10152 1.37042 1.03322 1.01479 0.744606 0.605417 0.148219
threshold=1.0000000180025095e-35 5.0139575654555903 4.6101453514146771 8.4344633314289101 1.0000000180025095e-35 5.1676349844808334 5.4270898555638087 8.192708573244488 1.0000000180025095e-35 4.9487347401052828 8.5077484064862308 1.5000000000000002
decision_type=8 10 8 2 2 10 8 2 2 8 2 2
left_child=10 2 3 7 -3 -6 -7 -2 -4 11 -1 -10
right_child=1 4 8 -5 5 6 -8 -9 9 -11 -12 -13
leaf_value=-0.06982431220525688 0.015533421923778179 -0.030614032331079472 0.028932160652218871 -0.026673314132840981 -0.019355319255896945 0.048039083058971213 0.0089345605035839899 0.045520038414637476 0.064833449251915032 0.034493009270435714 -0.092398134319714706 0.052439227671020119
leaf_weight=6.9148150533437711 7.8440928906202334 5.6758300960063943 6.5605980157852199 4.095525696873664 5.0387298017740259 4.7630235701799366 4.2304214388132104 4.5324783325195313 6.135556206107136 4.0076870918273935 5.206658273935318 3.9748292714357376
leaf_count=28 37 26 36 20 26 24 22 24 36 20 21 23
internal_value=0 0.403991 0.620821 0.265811 -0.00474734 0.240992 0.592895 0.530299 0.903613 1.05462 -1.59041 1.19921
internal_weight=0 56.8588 37.1508 16.4721 19.708 14.0322 8.99345 12.3766 20.6787 14.1181 12.1215 10.1104
internal_count=343 294 196 81 98 72 46 61 115 79 49 59
shrinkage=0.05


Tree=13
num_leaves=13
num_cat=0
split_feature=6 8 1 8 9 8 7 9 9 7 9 9
split_gain=36.2233 4.69005 3.88582 3.33792 3.16283 2.41291 1.31698 0.977137 0.807824 0.891647 0.643053 0.161735
threshold=1.0000000180025095e-35 5.0304165616299539 1.0000000180025095e-35 4.6101453514146771 8.4344633314289101 5.1676349844808334 1.5000000000000002 8.192708573244488 8.7140747781290582 1.0000000180025095e-35 8.4998435323749586 8.4225527328850038
decision_type=8 10 2 8 2 10 2 2 2 2 2 2
left_child=10 3 -3 4 7 -4 -7 -2 9 -5 -1 -11
right_child=1 2 5 8 -6 6 -8 -9 -10 11 -12 -13
leaf_value=-0.087591140568704748 0.014846406676380776 -0.037251856252743631 -0.015897901179771353 0.031560908794528518 -0.025058652583184439 0.046468263092203768 0.0078359414907067642 0.044247375756141495 0.029760500623213011 0.066529951656113126 -0.064454594697221257 0.053121786727260457
leaf_weight=6.1112589091062528 7.7979283928871173 5.2964649200439462 4.651350364089013 4.3599407374858883 4.140257090330123 4.759976774454115 4.1116210520267487 4.4322732537984848 7.5852906554937354 4.0325668305158597 5.905231237411499 5.085334524512291
leaf_count=25 37 24 24 25 20 25 21 24 39 23 24 32
internal_value=0 0.38827 -0.018963 0.593004 0.254285 0.265415 0.571275 0.510029 0.856258 1.00318 -1.52442 1.18104
internal_weight=0 56.253 18.8194 37.4336 16.3705 13.5229 8.8716 12.2302 21.0631 13.4778 12.0165 9.1179
internal_count=343 294 94 200 81 70 46 61 119 80 49 55
shrinkage=0.05


Tree=14
num_leaves=15
num_cat=0
split_feature=6 10 10 8 10 8 8 10 10 10 9 9 9 10
split_gain=33.0908 4.92073 8.79976 5.01548 1.70569 2.07015 6.4141 2.10657 1.84538 1.29283 0.611176 0.532247 0.141701 0.0232841
threshold=1.0000000180025095e-35 26.664617121131116 36.272873120645407 5.2626767655455557 40.850312989045385 4.1026092131977068 4.4716224665663962 44.525845864661662 38.525506756756762 60.234375000000007 8.4998435323749586 8.7156340998314707 8.649273470345431 33.485065710872171
decision_type=8 10 10 10 10 10 10 10 10 8 2 2 2 10
left_child=10 -2 12 4 8 -6 -7 -8 -4 11 -1 -9 13 -3
right_child=1 2 3 -5 5 6 7 9 -10 -11 -12 -13 -14 -15
leaf_value=-0.084448055443772596 -0.031075276575499508 0.06814959373663812 0.015387242407261404 -0.033622900786291543 0.045643324361026902 -0.045437842445388475 -0.0088205807296498646 0.026134938519004638 0.063897311627275286 0.006760282716720298 -0.061763712572720009 0.050678854863825354 0.053469755985440293 0.062689060446009276
leaf_weight=6.0239510834217054 4.565423071384429 3.7504448145627958 3.9721543043851844 5.2507856339216223 4.0561871975660351 4.6512281745672253 4.5450275391340282 3.6676888763904536 3.8710814863443375 3.9602825194597253 5.8556254208087921 5.5532685965299606 3.7354139387607574 4.0716414600610733
leaf_count=25 20 20 23 26 20 22 24 20 24 20 24 29 20 26
internal_value=0 0.373182 0.462076 0.237652 0.37707 0.255558 0.136413 0.410657 0.786594 0.613085 -1.46533 0.818327 1.22963 1.30614
internal_weight=0 55.6506 51.0852 39.5277 34.2769 26.4337 22.3775 17.7263 7.84324 13.1812 11.8796 9.22096 11.5575 7.82209
internal_count=343 294 274 208 182 135 115 93 47 69 49 49 66 46
shrinkage=0.05


Tree=15
num_leaves=14
num_cat=0
split_feature=10 10 8 8 1 9 9 9 10 9 9 9 7
split_gain=6.5257 3.46927 4.53524 3.73489 3.09866 3.10548 2.1661 2.8783 2.08992 1.30601 1.0845 1.12696 0.454245
threshold=27.715655593002733 40.850312989045385 4.1820210059610323 4.4367340276668159 1.0000000180025095e-35 8.8967190661558586 8.7022572133254794 8.1866031433695614 55.873031914893623 8.5584240964431011 8.4657946227889056 8.328082544383804 1.0000000180025095e-35
decision_type=10 10 10 10 2 2 2 2 8 2 2 2 2
left_child=-1 6 -3 -4 5 -5 7 -2 9 -6 11 -9 -11
right_child=1 2 3 4 8 -7 -8 10 -10 12 -12 -13 -14
leaf_value=-0.053553576796220338 -0.0050057288669746163 0.038567067982863669 -0.059537326077135647 -0.0037571230335054495 0.017105942358398376 -0.06281844128619056 -0.010057956684523112 0.046967805852525357 0.031439747503790555 -0.028681958569462592 0.056361612638770799 0.0084580512969318709 -0.0068956337775136784
leaf_weight=6.2071742415428153 5.9822567552328172 4.2751870751380912 4.3133908063173321 4.409607946872713 3.8443369269371059 4.4938922822475433 6.5501831769943228 3.446350082755087 4.6307248622179022 4.6164133697748166 4.6370773911476135 4.233536571264267 4.9666148573160172
leaf_count=27 29 21 20 21 20 20 33 23 24 23 29 26 27
internal_value=0 0.005663 -0.19471 -0.326766 -0.188544 -0.671347 0.292322 0.468963 0.0495004 -0.150282 0.745359 0.514786 -0.347814
internal_weight=0 60.3996 35.5502 31.275 26.9616 8.9035 24.8494 18.2992 18.0581 13.4274 12.317 7.67989 9.58303
internal_count=343 316 176 155 135 41 140 107 94 70 78 49 50
shrinkage=0.05


Tree=16
num_leaves=13
num_cat=0
split_feature=6 10 9 8 2 8 7 8 7 9 8 10
split_gain=21.6824 5.69134 5.77317 3.64645 2.16463 1.4519 1.32713 1.07657 1.62261 0.777001 0.769003 0.0065641
threshold=1.0000000180025095e-35 27.715655593002733 8.8967190661558586 4.4066448812345191 1.5000000000000002 4.983512786670059 1.0000000180025095e-35 4.7317931335534196 1.5000000000000002 8.4998435323749586 5.2094712223428914 40.275349650349661
decision_type=8 10 2 10 2 10 2 10 2 2 8 10
left_child=9 -2 3 -3 10 6 -5 8 -8 -1 -4 -9
right_child=1 2 4 5 -6 -7 7 11 -10 -11 -12 -13
leaf_value=-0.080781774988456401 -0.042823552009482055 -0.0057590100699389211 -0.039506329221371858 0.020402572387346118 0.01814982082124926 0.011811855472567164 0.054663141437269941 0.060519057283857182 0.0097756159942219804 -0.054829128472663996 -0.012129604426621509 0.063627689729262804
leaf_weight=5.1711714267730695 4.8832027018070212 7.78993335366249 4.9381613284349415 6.5913644731044831 3.979065239429473 6.2968944907188407 4.6229397654533368 3.4856328368186942 3.566447377204895 6.5206783413887024 5.3377958089113244 3.3114419281482697
leaf_count=22 21 38 24 38 21 34 27 25 20 27 26 20
internal_value=0 0.173889 0.27468 0.489679 -0.263226 0.658714 0.782003 0.946475 0.702296 -1.32615 -0.505712 1.24067
internal_weight=0 54.8029 49.9197 35.6647 14.255 27.8747 21.5778 14.9865 8.18939 11.6918 10.276 6.79707
internal_count=343 294 273 202 71 164 130 92 47 49 50 45
shrinkage=0.05


Tree=17
num_leaves=14
num_cat=0
split_feature=6 8 7 8 1 0 4 9 8 8 9 9 8
split_gain=19.8756 5.22194 2.93826 2.63227 2.49483 3.24773 1.75878 1.18841 1.26819 1.12444 1.52636 0.753655 0.658254
threshold=1.0000000180025095e-35 5.0304165616299539 1.0000000180025095e-35 4.7317931335534196 1.0000000180025095e-35 1.0000000180025095e-35 1.0000000180025095e-35 8.2602321516625352 4.7050052835523761 5.2230512493957635 9.0661807943031842 8.4998435323749586 4.8713658868283671
decision_type=8 8 2 8 2 2 2 2 10 8 2 2 10
left_child=11 2 3 -2 5 -4 9 -6 -9 -3 -11 -1 -10
right_child=1 6 4 -5 7 -7 -8 8 12 10 -12 -13 -14
leaf_value=-0.078402098413167698 -0.032668459727700362 -0.040175869906705582 0.040635260340482739 0.019739859706019075 0.066678507254938915 -0.011701103551976096 0.012018306599692198 0.0097262799664616616 0.061351727904458697 0.010939368033672993 -0.031879295280667068 -0.052635017052131944 0.029685319305317349
leaf_weight=5.0644144564867002 4.3684207648038837 5.3650207519531259 5.3520020619034767 5.3060670047998437 3.781694933772088 6.6441398113965988 5.12275306880474 3.5471493452787382 3.5686619430780411 4.0948662906885147 4.2325292229652405 6.4545551091432571 3.0383207872509956
leaf_count=22 23 27 29 30 21 34 26 20 24 20 20 27 20
internal_value=0 0.166644 0.391818 -0.0784921 0.567278 0.232969 -0.259485 0.855056 0.676843 -0.446494 -0.216478 -1.27927 0.935789
internal_weight=0 54.4216 35.6065 9.67449 25.932 11.9961 18.8152 13.9358 10.1541 13.6924 8.3274 11.519 6.60698
internal_count=343 294 201 53 148 63 93 85 64 67 40 49 44
shrinkage=0.05


Tree=18
num_leaves=14
num_cat=0
split_feature=6 10 8 10 8 8 10 4 8 10 10 8 8
split_gain=18.2454 5.06261 3.72005 4.00394 3.38498 7.31496 2.3032 0.939235 1.09717 0.985223 0.661572 0.546753 0.185088
threshold=1.0000000180025095e-35 27.715655593002733 5.0688844241303981 35.618681318681325 4.4367340276668159 4.1026092131977068 37.223611111111119 1.0000000180025095e-35 4.7229433450037179 44.525845864661662 48.576011326860851 4.8242976514536702 4.7229433450037179
decision_type=8 10 10 10 10 10 10 2 10 10 8 10 10
left_child=11 -2 4 -4 5 -3 12 8 -8 -10 -5 -1 -6
right_child=1 2 3 10 6 -7 7 -9 9 -11 -12 -13 -14
leaf_value=-0.070990630537308821 -0.040328158374213774 0.045080269697365914 0.037540797158512634 -0.033408786078741731 0.063892202070935863 -0.044316234445930344 0.012052819794305772 -0.00080731627036851369 0.019346851695511053 0.054647271973014777 -0.0082666242819963293 -0.048676806893031443 0.047770070935538263
leaf_weight=6.6628486812114698 4.9302309006452552 4.1519957929849607 3.5692045092582694 6.6044994145631764 3.278230249881747 5.0978827029466629 6.4623710215091732 3.6966003254055968 3.4312776103615743 4.6622852385044098 4.333024889230729 4.6690017133951187 3.8958011493086815
leaf_count=29 21 21 20 32 20 24 37 21 22 27 21 20 28
internal_value=0 0.159508 0.25635 -0.168855 0.434232 -0.083776 0.622677 0.43399 0.548306 0.793632 -0.468969 -1.23594 1.10274
internal_weight=0 54.1134 49.1832 14.5067 34.6764 9.24988 25.4266 18.2525 14.5559 8.09356 10.9375 11.3319 7.17403
internal_count=343 294 273 73 200 45 155 107 86 49 53 49 48
shrinkage=0.05


Tree=19
num_leaves=14
num_cat=0
split_feature=6 10 9 2 10 7 10 2 1 9 9 9 10
split_gain=16.7667 4.56141 4.8015 1.87964 1.39952 3.07302 1.75181 1.714 1.52978 1.52905 1.46684 0.754941 0.592525
threshold=1.0000000180025095e-35 27.715655593002733 8.8967190661558586 1.5000000000000002 40.850312989045385 1.0000000180025095e-35 38.525506756756762 1.0000000180025095e-35 1.0000000180025095e-35 8.5734779972008024 8.3373450969056737 8.4998435323749586 55.278618421052634
decision_type=8 10 2 2 10 2 8 2 2 2 2 2 8
left_child=11 -2 4 12 6 -6 8 10 -3 -10 -7 -1 -4
right_child=1 2 3 -5 5 7 -8 -9 9 -11 -12 -13 -14
leaf_value=-0.074599348932438775 -0.037958136556827178 -0.0025841470337625138 -0.034204503616383657 0.01743805259234869 -0.017482500293764736 0.020186112705516845 0.062966569828264679 0.0028707521060265984 0.052547341801117559 0.010092674496458624 0.063825772510437681 -0.048340186566563151 -0.010265335353607602
leaf_weight=4.8431118130683881 4.974957510828971 3.7689209505915651 5.5972873717546436 3.9306283742189398 5.7146571874618557 3.9771230369806272 3.7614255696535102 4.6466377675533295 5.2732291147112846 3.5477112084627151 3.7328910529613495 6.2944265007972717 4.8026659041643152
leaf_count=22 21 24 27 21 29 20 25 25 36 20 23 27 23
internal_value=0 0.152964 0.246041 -0.24034 0.448528 0.256728 0.660504 0.537163 0.481595 0.709448 0.826295 -1.19518 -0.462989
internal_weight=0 53.7281 48.7532 14.3306 34.4226 18.0713 16.3513 12.3567 12.5899 8.82094 7.71001 11.1375 10.4
internal_count=343 294 273 71 202 97 105 68 80 56 43 49 50
shrinkage=0.05


end of trees

feature importances:
Column_9=74
Column_8=61
Column_10=57
Column_6=16
Column_7=14
Column_1=12
Column_2=7
Column_3=4
Column_4=3
Column_0=1

parameters:
[boosting: gbdt]
[objective: binary]
[metric: auc]
[tree_learner: serial]
[device_type: cpu]
[data: ]
[valid: ]
[num_iterations: 100]
[learning_rate: 0.05]
[num_leaves: 31]
[num_threads: 0]
[max_depth: -1]
[min_data_in_leaf: 20]
[min_sum_hessian_in_leaf: 0.001]
[bagging_fraction: 0.8]
[pos_bagging_fraction: 1]
[neg_bagging_fraction: 1]
[bagging_freq: 5]
[bagging_seed: 3]
[feature_fraction: 0.9]
[feature_fraction_bynode: 1]
[feature_fraction_seed: 2]
[early_stopping_round: 0]
[first_metric_only: 0]
[max_delta_step: 0]
[lambda_l1: 0]
[lambda_l2: 0]
[min_gain_to_split: 0]
[drop_rate: 0.1]
[max_drop: 50]
[skip_drop: 0.5]
[xgboost_dart_mode: 0]
[uniform_drop: 0]
[drop_seed: 4]
[top_rate: 0.2]
[other_rate: 0.1]
[min_data_per_group: 100]
[max_cat_threshold: 32]
[cat_l2: 10]
[cat_smooth: 10]
[max_cat_to_onehot: 4]
[top_k: 20]
[monotone_constraints: ]
[feature_contri: ]
[forcedsplits_filename: ]
[forcedbins_filename: ]
[refit_decay_rate: 0.9]
[cegb_tradeoff: 1]
[cegb_penalty_split: 0]
[cegb_penalty_feature_lazy: ]
[cegb_penalty_feature_coupled: ]
[verbosity: 0]
[max_bin: 255]
[max_bin_by_feature: ]
[min_data_in_bin: 3]
[bin_construct_sample_cnt: 200000]
[histogram_pool_size: -1]
[data_random_seed: 1]
[output_model: LightGBM_model.txt]
[snapshot_freq: -1]
[input_model: ]
[output_result: LightGBM_predict_result.txt]
[initscore_filename: ]
[valid_data_initscores: ]
[pre_partition: 0]
[enable_bundle: 1]
[max_conflict_rate: 0]
[is_enable_sparse: 1]
[sparse_threshold: 0.8]
[use_missing: 1]
[zero_as_missing: 0]
[two_round: 0]
[save_binary: 0]
[header: 0]
[label_column: ]
[weight_column: ]
[group_column: ]
[ignore_column: ]
[categorical_feature: ]
[predict_raw_score: 0]
[predict_leaf_index: 0]
[predict_contrib: 0]
[num_iteration_predict: -1]
[pred_early_stop: 0]
[pred_early_stop_freq: 10]
[pred_early_stop_margin: 10]
[convert_model_language: ]
[convert_model: gbdt_prediction.cpp]
[num_class: 1]
[is_unbalance: 0]
[scale_pos_weight: 1]
[sigmoid: 1]
[boost_from_average: 1]
[reg_sqrt: 0]
[alpha: 0.9]
[fair_c: 1]
[poisson_max_delta_step: 0.7]
[tweedie_variance_power: 1.5]
[max_position: 20]
[lambdamart_norm: 1]
[label_gain: ]
[metric_freq: 1]
[is_provide_training_metric: 0]
[eval_at: ]
[multi_error_top_k: 1]
[num_machines: 1]
[local_listen_port: 12400]
[time_out: 120]
[machine_list_filename: ]
[machines: ]
[gpu_platform_id: -1]
[gpu_device_id: -1]
[gpu_use_dp: 0]

end of parameters

pandas_categorical:null
